<?xml version="1.0"?>
<opencv_storage>
<cascade>
  <stageType>BOOST</stageType>
  <featureType>LBP</featureType>
  <height>24</height>
  <width>24</width>
  <stageParams>
    <boostType>GAB</boostType>
    <minHitRate>9.9500000476837158e-01</minHitRate>
    <maxFalseAlarm>5.0000000000000000e-01</maxFalseAlarm>
    <weightTrimRate>9.4999999999999996e-01</weightTrimRate>
    <maxDepth>1</maxDepth>
    <maxWeakCount>100</maxWeakCount></stageParams>
  <featureParams>
    <maxCatCount>256</maxCatCount>
    <featSize>1</featSize></featureParams>
  <stageNum>16</stageNum>
  <stages>
    <!-- stage 0 -->
    <_>
      <maxWeakCount>3</maxWeakCount>
      <stageThreshold>-1.2703242301940918e+00</stageThreshold>
      <weakClassifiers>
        <_>
          <internalNodes>
            0 -1 28 -671089697 861493855 -39597763 -1148222797
            -419457905 -353155853 -874013761 -4194405</internalNodes>
          <leafValues>
            -9.6593189239501953e-01 8.1188118457794189e-01</leafValues></_>
        <_>
          <internalNodes>
            0 -1 11 -201329185 -207895605 -526267967 -748572001
            -1026848529 -1039728501 -930668229 -68206789</internalNodes>
          <leafValues>
            -9.7395038604736328e-01 7.7585834264755249e-01</leafValues></_>
        <_>
          <internalNodes>
            0 -1 2 -203685921 -686705901 -392062057 -209071185
            -388576001 -927758131 -924149105 2147483615</internalNodes>
          <leafValues>
            -1. 6.6955798864364624e-01</leafValues></_></weakClassifiers></_>
    <!-- stage 1 -->
    <_>
      <maxWeakCount>3</maxWeakCount>
      <stageThreshold>-1.0942125320434570e+00</stageThreshold>
      <weakClassifiers>
        <_>
          <internalNodes>
            0 -1 3 -11010049 -19024193 -328736929 -296033 -580947521
            -67263749 -1934497 -32929</internalNodes>
          <leafValues>
            -9.7965413331985474e-01 7.5115209817886353e-01</leafValues></_>
        <_>
          <internalNodes>
            0 -1 20 -673197089 -44588585 -1018831521 -3321445 -246164993
            -71573455 -90263873 -50402305</internalNodes>
          <leafValues>
            -9.4175279140472412e-01 8.4036219120025635e-01</leafValues></_>
        <_>
          <internalNodes>
            0 -1 4 -541065217 -16812389 -586836193 -537172385 -220253313
            -68570957 -8440929 -68158465</internalNodes>
          <leafValues>
            -9.5458465814590454e-01 8.2719433307647705e-01</leafValues></_></weakClassifiers></_>
    <!-- stage 2 -->
    <_>
      <maxWeakCount>3</maxWeakCount>
      <stageThreshold>-1.0415805578231812e+00</stageThreshold>
      <weakClassifiers>
        <_>
          <internalNodes>
            0 -1 25 -10510913 -396707 -1088464961 -548676131 -75266049
            -21235525 -1347551809 -285476097</internalNodes>
          <leafValues>
            -9.4674557447433472e-01 8.6021506786346436e-01</leafValues></_>
        <_>
          <internalNodes>
            0 -1 32 -10766337 -1613299493 -980037225 -538995491
            -393543681 -1410367307 -1148544037 -67572264</internalNodes>
          <leafValues>
            -9.3514472246170044e-01 8.7556797266006470e-01</leafValues></_>
        <_>
          <internalNodes>
            0 -1 22 -1076109313 1073173951 -1895473153 -10631211
            -343158273 -84948311 -7933969 -4625</internalNodes>
          <leafValues>
            -9.4012171030044556e-01 8.4030973911285400e-01</leafValues></_></weakClassifiers></_>
    <!-- stage 3 -->
    <_>
      <maxWeakCount>2</maxWeakCount>
      <stageThreshold>-3.1842890381813049e-01</stageThreshold>
      <weakClassifiers>
        <_>
          <internalNodes>
            0 -1 5 -67117057 -6579749 -627712257 -2100931 1589587711
            -19145729 -285606945 -5513217</internalNodes>
          <leafValues>
            -9.5329946279525757e-01 6.4651161432266235e-01</leafValues></_>
        <_>
          <internalNodes>
            0 -1 24 -878977025 -107226315 -1086776321 -579134473
            -1700797763 -6623297 -370222081 -721956</internalNodes>
          <leafValues>
            -9.6494054794311523e-01 6.3571679592132568e-01</leafValues></_></weakClassifiers></_>
    <!-- stage 4 -->
    <_>
      <maxWeakCount>3</maxWeakCount>
      <stageThreshold>-1.2517329454421997e+00</stageThreshold>
      <weakClassifiers>
        <_>
          <internalNodes>
            0 -1 9 -67141633 -1148762733 -1878974175 -537452453
            2001687339 -1283210039 1674525903 -337</internalNodes>
          <leafValues>
            -9.4206011295318604e-01 2.9104477167129517e-01</leafValues></_>
        <_>
          <internalNodes>
            0 -1 33 -1 -7878503 -988707755 -614612895 -1382819605
            -91635189 -645361478 2144069067</internalNodes>
          <leafValues>
            -8.9626479148864746e-01 5.9407228231430054e-01</leafValues></_>
        <_>
          <internalNodes>
            0 -1 21 -2099201 1073739263 1423688159 -8654433 -2138257218
            -89994804 -392000056 -1075064625</internalNodes>
          <leafValues>
            -9.0374517440795898e-01 6.4564269781112671e-01</leafValues></_></weakClassifiers></_>
    <!-- stage 5 -->
    <_>
      <maxWeakCount>3</maxWeakCount>
      <stageThreshold>-1.4594885110855103e+00</stageThreshold>
      <weakClassifiers>
        <_>
          <internalNodes>
            0 -1 9 -33793 -1144428197 -2137484907 -102784207 2023442959
            -1426046976 2074819323 -7489</internalNodes>
          <leafValues>
            -9.3576020002365112e-01 2.7819550037384033e-01</leafValues></_>
        <_>
          <internalNodes>
            0 -1 36 -71311873 -548677413 -466093571 -488427057
            -1766861825 -3693368 -123995137 -1062274229</internalNodes>
          <leafValues>
            -9.1511642932891846e-01 4.8257854580879211e-01</leafValues></_>
        <_>
          <internalNodes>
            0 -1 16 -6554901 -831542588 -669494061 -763116479 -376712626
            185025112 -896823650 -612369449</internalNodes>
          <leafValues>
            -8.2256758213043213e-01 6.7378675937652588e-01</leafValues></_></weakClassifiers></_>
    <!-- stage 6 -->
    <_>
      <maxWeakCount>3</maxWeakCount>
      <stageThreshold>-1.2036433219909668e+00</stageThreshold>
      <weakClassifiers>
        <_>
          <internalNodes>
            0 -1 29 -1 -2368169 -485107775 -40618383 -1903381 -31727400
            -243039573 1504418063</internalNodes>
          <leafValues>
            -9.0759754180908203e-01 3.7168142199516296e-01</leafValues></_>
        <_>
          <internalNodes>
            0 -1 39 -201326901 -273681024 -767488000 -162407067
            -766948818 1787928653 -1735731967 -141825089</internalNodes>
          <leafValues>
            -8.4980571269989014e-01 6.1912959814071655e-01</leafValues></_>
        <_>
          <internalNodes>
            0 -1 23 -239738881 -136985635 1998542303 -1110386235
            -259866694 -755660628 -913770049 434043789</internalNodes>
          <leafValues>
            -9.1517537832260132e-01 5.8590173721313477e-01</leafValues></_></weakClassifiers></_>
    <!-- stage 7 -->
    <_>
      <maxWeakCount>3</maxWeakCount>
      <stageThreshold>-1.4871872663497925e+00</stageThreshold>
      <weakClassifiers>
        <_>
          <internalNodes>
            0 -1 0 -135269377 -245919305 -1073235745 -2102049
            -1146103873 -357304179 -139462761 -72366651</internalNodes>
          <leafValues>
            -8.9013224840164185e-01 3.4562212228775024e-01</leafValues></_>
        <_>
          <internalNodes>
            0 -1 40 -39846401 -33857877 1496003035 -807415397 -83103061
            -1165245517 -69533697 2146301935</internalNodes>
          <leafValues>
            -9.2506557703018188e-01 4.3673694133758545e-01</leafValues></_>
        <_>
          <internalNodes>
            0 -1 12 -14690326 -70018850 337754586 -141566386 -610276582
            1536158410 -872437309 -3145873</internalNodes>
          <leafValues>
            -9.0774381160736084e-01 5.1252698898315430e-01</leafValues></_></weakClassifiers></_>
    <!-- stage 8 -->
    <_>
      <maxWeakCount>3</maxWeakCount>
      <stageThreshold>-1.1779426336288452e+00</stageThreshold>
      <weakClassifiers>
        <_>
          <internalNodes>
            0 -1 6 -69468161 -248531288 -1855483617 -67643207 -384142993
            -814755519 1975235047 -8389633</internalNodes>
          <leafValues>
            -8.8270980119705200e-01 3.4597155451774597e-01</leafValues></_>
        <_>
          <internalNodes>
            0 -1 41 -1073746049 669207011 -905455333 1041199995
            -1664368481 1796198656 -1314923861 -872415233</internalNodes>
          <leafValues>
            -8.1657516956329346e-01 6.0286980867385864e-01</leafValues></_>
        <_>
          <internalNodes>
            0 -1 30 -136315393 -321543 1166329303 -659236501 -34932033
            -118826094 -77348934 1287378675</internalNodes>
          <leafValues>
            -8.9810264110565186e-01 6.2194204330444336e-01</leafValues></_></weakClassifiers></_>
    <!-- stage 9 -->
    <_>
      <maxWeakCount>3</maxWeakCount>
      <stageThreshold>-1.1372479200363159e+00</stageThreshold>
      <weakClassifiers>
        <_>
          <internalNodes>
            0 -1 34 -606121761 -544517415 -1850379361 -155503
            -1736385058 -288681829 -1478821377 -13960007</internalNodes>
          <leafValues>
            -8.4894835948944092e-01 5.7142859697341919e-01</leafValues></_>
        <_>
          <internalNodes>
            0 -1 6 -4196625 -745940918 -800157189 -143146277 -896828549
            1224989259 1207694055 -613424517</internalNodes>
          <leafValues>
            -8.1486070156097412e-01 6.1935412883758545e-01</leafValues></_>
        <_>
          <internalNodes>
            0 -1 27 -145236097 -7865017 -716726891 -4212821 -918298677
            -70013031 -1881941027 1610234348</internalNodes>
          <leafValues>
            -9.9432802200317383e-01 5.2656120061874390e-01</leafValues></_></weakClassifiers></_>
    <!-- stage 10 -->
    <_>
      <maxWeakCount>3</maxWeakCount>
      <stageThreshold>-1.3339054584503174e+00</stageThreshold>
      <weakClassifiers>
        <_>
          <internalNodes>
            0 -1 31 -4499973 -550561608 -267460609 -52477539 -1716634914
            -2367318 -626992129 -71763495</internalNodes>
          <leafValues>
            -8.7103176116943359e-01 4.0625000000000000e-01</leafValues></_>
        <_>
          <internalNodes>
            0 -1 8 -138445825 -1651545789 -704432683 1486508235
            -1126204577 746704399 1939718391 -265609</internalNodes>
          <leafValues>
            -8.4709644317626953e-01 5.0042521953582764e-01</leafValues></_>
        <_>
          <internalNodes>
            0 -1 26 -1210363555 1496936604 825464819 1557222783
            -928811330 -85020338 -121377793 -56992807</internalNodes>
          <leafValues>
            -8.9305901527404785e-01 5.4354071617126465e-01</leafValues></_></weakClassifiers></_>
    <!-- stage 11 -->
    <_>
      <maxWeakCount>3</maxWeakCount>
      <stageThreshold>-1.4425373077392578e+00</stageThreshold>
      <weakClassifiers>
        <_>
          <internalNodes>
            0 -1 13 -38806021 -873474158 -2006887909 -119574009
            -1921268786 1229506565 -494157581 -679477505</internalNodes>
          <leafValues>
            -8.9812892675399780e-01 2.6890757679939270e-01</leafValues></_>
        <_>
          <internalNodes>
            0 -1 15 2145350527 -1534302725 -2095183125 -1276439597
            2096066367 -116710845 602405531 -277119329</internalNodes>
          <leafValues>
            -9.2137575149536133e-01 3.5696676373481750e-01</leafValues></_>
        <_>
          <internalNodes>
            0 -1 18 -1861505025 -183622441 180447 -541074177 8817903
            -930219889 -670447481 2146959351</internalNodes>
          <leafValues>
            -9.0137511491775513e-01 4.8304206132888794e-01</leafValues></_></weakClassifiers></_>
    <!-- stage 12 -->
    <_>
      <maxWeakCount>3</maxWeakCount>
      <stageThreshold>-1.4692268371582031e+00</stageThreshold>
      <weakClassifiers>
        <_>
          <internalNodes>
            0 -1 14 -136917777 -11146237 -667298714 -202644009 -85790518
            -91045721 -1131873329 -147064133</internalNodes>
          <leafValues>
            -8.9189189672470093e-01 2.4369747936725616e-01</leafValues></_>
        <_>
          <internalNodes>
            0 -1 1 -100663381 -44057505 -888045509 -673330965 -744293713
            1997172983 1629930999 -211820403</internalNodes>
          <leafValues>
            -8.5273349285125732e-01 5.0914782285690308e-01</leafValues></_>
        <_>
          <internalNodes>
            0 -1 35 -1074137938 -73796671 -1818101630 1002426509
            -2121205765 -2027870125 -745554261 -134226977</internalNodes>
          <leafValues>
            -8.6019080877304077e-01 5.4660338163375854e-01</leafValues></_></weakClassifiers></_>
    <!-- stage 13 -->
    <_>
      <maxWeakCount>2</maxWeakCount>
      <stageThreshold>-7.8480076789855957e-01</stageThreshold>
      <weakClassifiers>
        <_>
          <internalNodes>
            0 -1 38 1073479679 804250111 2107032439 -1344556133
            -1426728533 262389977 -1143418185 -69206545</internalNodes>
          <leafValues>
            -9.2113912105560303e-01 1.4285714924335480e-01</leafValues></_>
        <_>
          <internalNodes>
            0 -1 19 -622865409 -37402737 589075171 -238300051
            -1110443173 -356218454 -353634329 2143288109</internalNodes>
          <leafValues>
            -9.2765790224075317e-01 3.7815496325492859e-01</leafValues></_></weakClassifiers></_>
    <!-- stage 14 -->
    <_>
      <maxWeakCount>3</maxWeakCount>
      <stageThreshold>-1.3065236806869507e+00</stageThreshold>
      <weakClassifiers>
        <_>
          <internalNodes>
            0 -1 13 -73924613 -208955437 1246232695 2027638919
            -1319900469 1315618819 -1029187881 -748946437</internalNodes>
          <leafValues>
            -8.9161556959152222e-01 3.2432430982589722e-01</leafValues></_>
        <_>
          <internalNodes>
            0 -1 7 -689971457 -1449500660 673055693 -539602685
            -1282462897 -317738461 -939822377 -8914201</internalNodes>
          <leafValues>
            -7.8863197565078735e-01 5.6729024648666382e-01</leafValues></_>
        <_>
          <internalNodes>
            0 -1 10 2002223103 -574279273 1501664735 -538972137
            1005403515 -1691744236 2005432959 2134582347</internalNodes>
          <leafValues>
            -9.8219841718673706e-01 4.2645663022994995e-01</leafValues></_></weakClassifiers></_>
    <!-- stage 15 -->
    <_>
      <maxWeakCount>3</maxWeakCount>
      <stageThreshold>-1.2058397531509399e+00</stageThreshold>
      <weakClassifiers>
        <_>
          <internalNodes>
            0 -1 13 -1819935749 -779234174 134807621 1888362511
            -1862025015 -934658032 -1030494585 -681848117</internalNodes>
          <leafValues>
            -8.9178359508514404e-01 4.4554454088211060e-01</leafValues></_>
        <_>
          <internalNodes>
            0 -1 17 -248657781 -1022900992 -2004418095 -665599997
            -259544502 151322764 -1631399039 -140516217</internalNodes>
          <leafValues>
            -7.8854346275329590e-01 6.1439418792724609e-01</leafValues></_>
        <_>
          <internalNodes>
            0 -1 37 -245763853 -1434367862 852240 1388421201 -2129489701
            65668 1128979 -418657301</internalNodes>
          <leafValues>
            -8.6284089088439941e-01 5.8736801147460938e-01</leafValues></_></weakClassifiers></_></stages>
  <features>
    <_>
      <rect>
        0 0 2 3</rect></_>
    <_>
      <rect>
        0 0 2 4</rect></_>
    <_>
      <rect>
        0 0 7 7</rect></_>
    <_>
      <rect>
        0 2 4 7</rect></_>
    <_>
      <rect>
        0 6 4 6</rect></_>
    <_>
      <rect>
        0 9 5 5</rect></_>
    <_>
      <rect>
        0 10 1 2</rect></_>
    <_>
      <rect>
        0 11 1 2</rect></_>
    <_>
      <rect>
        0 11 1 3</rect></_>
    <_>
      <rect>
        0 12 1 4</rect></_>
    <_>
      <rect>
        0 21 2 1</rect></_>
    <_>
      <rect>
        1 0 3 8</rect></_>
    <_>
      <rect>
        1 6 2 3</rect></_>
    <_>
      <rect>
        1 9 1 2</rect></_>
    <_>
      <rect>
        1 14 2 1</rect></_>
    <_>
      <rect>
        1 15 1 3</rect></_>
    <_>
      <rect>
        2 8 1 2</rect></_>
    <_>
      <rect>
        2 9 1 2</rect></_>
    <_>
      <rect>
        4 4 3 4</rect></_>
    <_>
      <rect>
        4 8 1 2</rect></_>
    <_>
      <rect>
        6 0 6 5</rect></_>
    <_>
      <rect>
        6 9 6 5</rect></_>
    <_>
      <rect>
        8 9 5 5</rect></_>
    <_>
      <rect>
        8 11 2 1</rect></_>
    <_>
      <rect>
        9 0 2 4</rect></_>
    <_>
      <rect>
        9 1 5 5</rect></_>
    <_>
      <rect>
        9 2 5 2</rect></_>
    <_>
      <rect>
        9 6 2 3</rect></_>
    <_>
      <rect>
        9 9 5 5</rect></_>
    <_>
      <rect>
        9 12 2 2</rect></_>
    <_>
      <rect>
        9 13 2 1</rect></_>
    <_>
      <rect>
        9 19 2 1</rect></_>
    <_>
      <rect>
        11 0 1 4</rect></_>
    <_>
      <rect>
        11 10 1 2</rect></_>
    <_>
      <rect>
        11 19 2 1</rect></_>
    <_>
      <rect>
        17 13 2 2</rect></_>
    <_>
      <rect>
        18 0 2 3</rect></_>
    <_>
      <rect>
        18 7 2 3</rect></_>
    <_>
      <rect>
        18 18 2 2</rect></_>
    <_>
      <rect>
        19 10 1 2</rect></_>
    <_>
      <rect>
        21 0 1 1</rect></_>
    <_>
      <rect>
        21 8 1 5</rect></_></features></cascade>
</opencv_storage>
