<?xml version="1.0"?>
<opencv_storage>
<cascade>
  <stageType>BOOST</stageType>
  <featureType>HAAR</featureType>
  <height>24</height>
  <width>24</width>
  <stageParams>
    <boostType>GAB</boostType>
    <minHitRate>9.9500000476837158e-01</minHitRate>
    <maxFalseAlarm>5.0000000000000000e-01</maxFalseAlarm>
    <weightTrimRate>9.4999999999999996e-01</weightTrimRate>
    <maxDepth>1</maxDepth>
    <maxWeakCount>100</maxWeakCount></stageParams>
  <featureParams>
    <maxCatCount>0</maxCatCount>
    <featSize>1</featSize>
    <mode>BASIC</mode></featureParams>
  <stageNum>16</stageNum>
  <stages>
    <!-- stage 0 -->
    <_>
      <maxWeakCount>1</maxWeakCount>
      <stageThreshold>7.8775513172149658e-01</stageThreshold>
      <weakClassifiers>
        <_>
          <internalNodes>
            0 -1 34 7.8138977289199829e-02</internalNodes>
          <leafValues>
            -9.9794870615005493e-01 7.8775513172149658e-01</leafValues></_></weakClassifiers></_>
    <!-- stage 1 -->
    <_>
      <maxWeakCount>3</maxWeakCount>
      <stageThreshold>-1.2712446451187134e+00</stageThreshold>
      <weakClassifiers>
        <_>
          <internalNodes>
            0 -1 14 -3.0992913246154785e-01</internalNodes>
          <leafValues>
            7.2614109516143799e-01 -9.7548520565032959e-01</leafValues></_>
        <_>
          <internalNodes>
            0 -1 11 -1.2201939523220062e-01</internalNodes>
          <leafValues>
            6.6370970010757446e-01 -9.4148737192153931e-01</leafValues></_>
        <_>
          <internalNodes>
            0 -1 1 -6.9736152887344360e-02</internalNodes>
          <leafValues>
            6.4572787284851074e-01 -9.1640758514404297e-01</leafValues></_></weakClassifiers></_>
    <!-- stage 2 -->
    <_>
      <maxWeakCount>2</maxWeakCount>
      <stageThreshold>-7.3746299743652344e-01</stageThreshold>
      <weakClassifiers>
        <_>
          <internalNodes>
            0 -1 5 1.2236799299716949e-01</internalNodes>
          <leafValues>
            -9.3832600116729736e-01 2.3076923191547394e-01</leafValues></_>
        <_>
          <internalNodes>
            0 -1 4 -4.4122291728854179e-03</internalNodes>
          <leafValues>
            2.1716454625129700e-01 -9.6823221445083618e-01</leafValues></_></weakClassifiers></_>
    <!-- stage 3 -->
    <_>
      <maxWeakCount>3</maxWeakCount>
      <stageThreshold>-1.5565729141235352e+00</stageThreshold>
      <weakClassifiers>
        <_>
          <internalNodes>
            0 -1 15 -1.8589645624160767e-01</internalNodes>
          <leafValues>
            2.8205129504203796e-01 -9.0496301651000977e-01</leafValues></_>
        <_>
          <internalNodes>
            0 -1 8 1.2789326906204224e-01</internalNodes>
          <leafValues>
            -9.2555642127990723e-01 2.8492602705955505e-01</leafValues></_>
        <_>
          <internalNodes>
            0 -1 21 -8.0848962068557739e-02</internalNodes>
          <leafValues>
            2.7394655346870422e-01 -9.8135399818420410e-01</leafValues></_></weakClassifiers></_>
    <!-- stage 4 -->
    <_>
      <maxWeakCount>2</maxWeakCount>
      <stageThreshold>-4.5326799154281616e-01</stageThreshold>
      <weakClassifiers>
        <_>
          <internalNodes>
            0 -1 3 -7.8601092100143433e-03</internalNodes>
          <leafValues>
            9.2523366212844849e-01 -7.8975743055343628e-01</leafValues></_>
        <_>
          <internalNodes>
            0 -1 7 -1.1404370516538620e-01</internalNodes>
          <leafValues>
            3.3648943901062012e-01 -9.8611491918563843e-01</leafValues></_></weakClassifiers></_>
    <!-- stage 5 -->
    <_>
      <maxWeakCount>4</maxWeakCount>
      <stageThreshold>-1.1231008768081665e+00</stageThreshold>
      <weakClassifiers>
        <_>
          <internalNodes>
            0 -1 40 -3.1975209712982178e-03</internalNodes>
          <leafValues>
            9.6226418018341064e-01 -7.9174149036407471e-01</leafValues></_>
        <_>
          <internalNodes>
            0 -1 37 3.4358116681687534e-04</internalNodes>
          <leafValues>
            3.0550813674926758e-01 -8.9203184843063354e-01</leafValues></_>
        <_>
          <internalNodes>
            0 -1 35 -6.2482670182362199e-04</internalNodes>
          <leafValues>
            -9.6907025575637817e-01 3.3988502621650696e-01</leafValues></_>
        <_>
          <internalNodes>
            0 -1 22 -2.6865905965678394e-04</internalNodes>
          <leafValues>
            -9.8284912109375000e-01 3.3220273256301880e-01</leafValues></_></weakClassifiers></_>
    <!-- stage 6 -->
    <_>
      <maxWeakCount>3</maxWeakCount>
      <stageThreshold>-1.2761609554290771e+00</stageThreshold>
      <weakClassifiers>
        <_>
          <internalNodes>
            0 -1 0 -3.8423500955104828e-03</internalNodes>
          <leafValues>
            7.2781062126159668e-01 -8.5918170213699341e-01</leafValues></_>
        <_>
          <internalNodes>
            0 -1 6 -8.6340686539188027e-04</internalNodes>
          <leafValues>
            5.7301688194274902e-01 -8.6097729206085205e-01</leafValues></_>
        <_>
          <internalNodes>
            0 -1 17 8.8401748143951409e-06</internalNodes>
          <leafValues>
            4.4399806857109070e-01 -9.3970799446105957e-01</leafValues></_></weakClassifiers></_>
    <!-- stage 7 -->
    <_>
      <maxWeakCount>2</maxWeakCount>
      <stageThreshold>-7.8163939714431763e-01</stageThreshold>
      <weakClassifiers>
        <_>
          <internalNodes>
            0 -1 12 -2.0878106355667114e-02</internalNodes>
          <leafValues>
            2.7137547731399536e-01 -8.9695060253143311e-01</leafValues></_>
        <_>
          <internalNodes>
            0 -1 19 2.0510339527390897e-04</internalNodes>
          <leafValues>
            1.1531121283769608e-01 -1.</leafValues></_></weakClassifiers></_>
    <!-- stage 8 -->
    <_>
      <maxWeakCount>3</maxWeakCount>
      <stageThreshold>-1.2754018306732178e+00</stageThreshold>
      <weakClassifiers>
        <_>
          <internalNodes>
            0 -1 2 -3.2706863712519407e-03</internalNodes>
          <leafValues>
            9.3893128633499146e-01 -8.2920110225677490e-01</leafValues></_>
        <_>
          <internalNodes>
            0 -1 18 -1.7485063290223479e-04</internalNodes>
          <leafValues>
            -9.0925770998001099e-01 4.6509486436843872e-01</leafValues></_>
        <_>
          <internalNodes>
            0 -1 31 -2.4585804203525186e-04</internalNodes>
          <leafValues>
            -9.1129565238952637e-01 4.8604726791381836e-01</leafValues></_></weakClassifiers></_>
    <!-- stage 9 -->
    <_>
      <maxWeakCount>4</maxWeakCount>
      <stageThreshold>-9.7534519433975220e-01</stageThreshold>
      <weakClassifiers>
        <_>
          <internalNodes>
            0 -1 33 -3.2021007500588894e-03</internalNodes>
          <leafValues>
            8.6324787139892578e-01 -7.9873073101043701e-01</leafValues></_>
        <_>
          <internalNodes>
            0 -1 32 -5.3364950872492045e-05</internalNodes>
          <leafValues>
            -9.5110511779785156e-01 3.6637738347053528e-01</leafValues></_>
        <_>
          <internalNodes>
            0 -1 20 -4.2068085167557001e-04</internalNodes>
          <leafValues>
            -9.5811611413955688e-01 3.5087588429450989e-01</leafValues></_>
        <_>
          <internalNodes>
            0 -1 10 -1.5181504189968109e-02</internalNodes>
          <leafValues>
            4.2361479997634888e-01 -7.8557044267654419e-01</leafValues></_></weakClassifiers></_>
    <!-- stage 10 -->
    <_>
      <maxWeakCount>2</maxWeakCount>
      <stageThreshold>-4.5992591977119446e-01</stageThreshold>
      <weakClassifiers>
        <_>
          <internalNodes>
            0 -1 23 1.5070031397044659e-02</internalNodes>
          <leafValues>
            -8.1885397434234619e-01 7.6811593770980835e-01</leafValues></_>
        <_>
          <internalNodes>
            0 -1 26 4.7465506941080093e-04</internalNodes>
          <leafValues>
            3.5892805457115173e-01 -1.</leafValues></_></weakClassifiers></_>
    <!-- stage 11 -->
    <_>
      <maxWeakCount>2</maxWeakCount>
      <stageThreshold>-5.5887883901596069e-01</stageThreshold>
      <weakClassifiers>
        <_>
          <internalNodes>
            0 -1 41 -9.6022449433803558e-03</internalNodes>
          <leafValues>
            5.6382977962493896e-01 -8.5852712392807007e-01</leafValues></_>
        <_>
          <internalNodes>
            0 -1 36 -4.7690758947283030e-05</internalNodes>
          <leafValues>
            -9.9005168676376343e-01 2.9964828491210938e-01</leafValues></_></weakClassifiers></_>
    <!-- stage 12 -->
    <_>
      <maxWeakCount>4</maxWeakCount>
      <stageThreshold>-1.1180211305618286e+00</stageThreshold>
      <weakClassifiers>
        <_>
          <internalNodes>
            0 -1 24 5.9915413148701191e-03</internalNodes>
          <leafValues>
            -7.9297930002212524e-01 9.2660552263259888e-01</leafValues></_>
        <_>
          <internalNodes>
            0 -1 25 7.6322045060805976e-05</internalNodes>
          <leafValues>
            3.4612539410591125e-01 -9.5944958925247192e-01</leafValues></_>
        <_>
          <internalNodes>
            0 -1 30 -2.1631292474921793e-04</internalNodes>
          <leafValues>
            -9.0808212757110596e-01 3.4351083636283875e-01</leafValues></_>
        <_>
          <internalNodes>
            0 -1 27 -5.4822285892441869e-04</internalNodes>
          <leafValues>
            -1. 2.9089689254760742e-01</leafValues></_></weakClassifiers></_>
    <!-- stage 13 -->
    <_>
      <maxWeakCount>2</maxWeakCount>
      <stageThreshold>-5.4871338605880737e-01</stageThreshold>
      <weakClassifiers>
        <_>
          <internalNodes>
            0 -1 39 -4.4268704950809479e-03</internalNodes>
          <leafValues>
            7.0731705427169800e-01 -7.9033726453781128e-01</leafValues></_>
        <_>
          <internalNodes>
            0 -1 16 5.0513644237071276e-04</internalNodes>
          <leafValues>
            2.4162392318248749e-01 -9.9007397890090942e-01</leafValues></_></weakClassifiers></_>
    <!-- stage 14 -->
    <_>
      <maxWeakCount>3</maxWeakCount>
      <stageThreshold>-1.0184288024902344e+00</stageThreshold>
      <weakClassifiers>
        <_>
          <internalNodes>
            0 -1 42 4.6254564076662064e-03</internalNodes>
          <leafValues>
            -7.9211467504501343e-01 1.</leafValues></_>
        <_>
          <internalNodes>
            0 -1 27 6.0092243074905127e-05</internalNodes>
          <leafValues>
            3.7031278014183044e-01 -9.4229125976562500e-01</leafValues></_>
        <_>
          <internalNodes>
            0 -1 9 1.2002053699688986e-04</internalNodes>
          <leafValues>
            -5.9662687778472900e-01 7.1843290328979492e-01</leafValues></_></weakClassifiers></_>
    <!-- stage 15 -->
    <_>
      <maxWeakCount>4</maxWeakCount>
      <stageThreshold>-8.7867325544357300e-01</stageThreshold>
      <weakClassifiers>
        <_>
          <internalNodes>
            0 -1 29 -3.6750468425452709e-03</internalNodes>
          <leafValues>
            1. -7.8890877962112427e-01</leafValues></_>
        <_>
          <internalNodes>
            0 -1 28 8.9272696641273797e-05</internalNodes>
          <leafValues>
            2.6802206039428711e-01 -9.3159812688827515e-01</leafValues></_>
        <_>
          <internalNodes>
            0 -1 13 -8.8675897131906822e-06</internalNodes>
          <leafValues>
            4.0709784626960754e-01 -8.2157766819000244e-01</leafValues></_>
        <_>
          <internalNodes>
            0 -1 38 -3.1636157073080540e-03</internalNodes>
          <leafValues>
            5.4871267080307007e-01 -7.6488435268402100e-01</leafValues></_></weakClassifiers></_></stages>
  <features>
    <_>
      <rects>
        <_>
          0 0 8 5 -1.</_>
        <_>
          4 0 4 5 2.</_></rects>
      <tilted>0</tilted></_>
    <_>
      <rects>
        <_>
          0 8 18 8 -1.</_>
        <_>
          6 8 6 8 3.</_></rects>
      <tilted>0</tilted></_>
    <_>
      <rects>
        <_>
          0 11 2 3 -1.</_>
        <_>
          1 11 1 3 2.</_></rects>
      <tilted>0</tilted></_>
    <_>
      <rects>
        <_>
          0 11 3 3 -1.</_>
        <_>
          1 11 1 3 3.</_></rects>
      <tilted>0</tilted></_>
    <_>
      <rects>
        <_>
          0 11 15 1 -1.</_>
        <_>
          5 11 5 1 3.</_></rects>
      <tilted>0</tilted></_>
    <_>
      <rects>
        <_>
          0 14 24 10 -1.</_>
        <_>
          0 19 24 5 2.</_></rects>
      <tilted>0</tilted></_>
    <_>
      <rects>
        <_>
          1 0 2 21 -1.</_>
        <_>
          1 7 2 7 3.</_></rects>
      <tilted>0</tilted></_>
    <_>
      <rects>
        <_>
          1 6 17 18 -1.</_>
        <_>
          1 12 17 6 3.</_></rects>
      <tilted>0</tilted></_>
    <_>
      <rects>
        <_>
          1 12 16 12 -1.</_>
        <_>
          1 18 16 6 2.</_></rects>
      <tilted>0</tilted></_>
    <_>
      <rects>
        <_>
          1 13 4 2 -1.</_>
        <_>
          3 13 2 2 2.</_></rects>
      <tilted>0</tilted></_>
    <_>
      <rects>
        <_>
          2 9 9 6 -1.</_>
        <_>
          5 9 3 6 3.</_></rects>
      <tilted>0</tilted></_>
    <_>
      <rects>
        <_>
          3 0 21 10 -1.</_>
        <_>
          3 5 21 5 2.</_></rects>
      <tilted>0</tilted></_>
    <_>
      <rects>
        <_>
          3 7 4 9 -1.</_>
        <_>
          5 7 2 9 2.</_></rects>
      <tilted>0</tilted></_>
    <_>
      <rects>
        <_>
          5 3 6 16 -1.</_>
        <_>
          7 3 2 16 3.</_></rects>
      <tilted>0</tilted></_>
    <_>
      <rects>
        <_>
          6 0 16 24 -1.</_>
        <_>
          6 8 16 8 3.</_></rects>
      <tilted>0</tilted></_>
    <_>
      <rects>
        <_>
          6 0 18 12 -1.</_>
        <_>
          6 6 18 6 2.</_></rects>
      <tilted>0</tilted></_>
    <_>
      <rects>
        <_>
          7 8 6 1 -1.</_>
        <_>
          9 8 2 1 3.</_></rects>
      <tilted>0</tilted></_>
    <_>
      <rects>
        <_>
          7 10 5 2 -1.</_>
        <_>
          7 11 5 1 2.</_></rects>
      <tilted>0</tilted></_>
    <_>
      <rects>
        <_>
          7 11 6 3 -1.</_>
        <_>
          7 12 6 1 3.</_></rects>
      <tilted>0</tilted></_>
    <_>
      <rects>
        <_>
          7 11 8 3 -1.</_>
        <_>
          7 12 8 1 3.</_></rects>
      <tilted>0</tilted></_>
    <_>
      <rects>
        <_>
          7 14 9 1 -1.</_>
        <_>
          10 14 3 1 3.</_></rects>
      <tilted>0</tilted></_>
    <_>
      <rects>
        <_>
          8 0 16 10 -1.</_>
        <_>
          8 5 16 5 2.</_></rects>
      <tilted>0</tilted></_>
    <_>
      <rects>
        <_>
          8 10 2 2 -1.</_>
        <_>
          8 11 2 1 2.</_></rects>
      <tilted>0</tilted></_>
    <_>
      <rects>
        <_>
          8 16 4 6 -1.</_>
        <_>
          8 18 4 2 3.</_></rects>
      <tilted>0</tilted></_>
    <_>
      <rects>
        <_>
          8 18 3 3 -1.</_>
        <_>
          8 19 3 1 3.</_></rects>
      <tilted>0</tilted></_>
    <_>
      <rects>
        <_>
          9 10 7 2 -1.</_>
        <_>
          9 11 7 1 2.</_></rects>
      <tilted>0</tilted></_>
    <_>
      <rects>
        <_>
          9 12 7 3 -1.</_>
        <_>
          9 13 7 1 3.</_></rects>
      <tilted>0</tilted></_>
    <_>
      <rects>
        <_>
          9 13 6 2 -1.</_>
        <_>
          11 13 2 2 3.</_></rects>
      <tilted>0</tilted></_>
    <_>
      <rects>
        <_>
          10 11 4 4 -1.</_>
        <_>
          10 13 4 2 2.</_></rects>
      <tilted>0</tilted></_>
    <_>
      <rects>
        <_>
          10 20 2 3 -1.</_>
        <_>
          10 21 2 1 3.</_></rects>
      <tilted>0</tilted></_>
    <_>
      <rects>
        <_>
          11 10 6 2 -1.</_>
        <_>
          13 10 2 2 3.</_></rects>
      <tilted>0</tilted></_>
    <_>
      <rects>
        <_>
          11 10 2 6 -1.</_>
        <_>
          11 12 2 2 3.</_></rects>
      <tilted>0</tilted></_>
    <_>
      <rects>
        <_>
          11 10 4 3 -1.</_>
        <_>
          13 10 2 3 2.</_></rects>
      <tilted>0</tilted></_>
    <_>
      <rects>
        <_>
          11 20 2 3 -1.</_>
        <_>
          11 21 2 1 3.</_></rects>
      <tilted>0</tilted></_>
    <_>
      <rects>
        <_>
          12 7 12 9 -1.</_>
        <_>
          18 7 6 9 2.</_></rects>
      <tilted>0</tilted></_>
    <_>
      <rects>
        <_>
          13 10 3 4 -1.</_>
        <_>
          13 12 3 2 2.</_></rects>
      <tilted>0</tilted></_>
    <_>
      <rects>
        <_>
          14 10 2 4 -1.</_>
        <_>
          15 10 1 4 2.</_></rects>
      <tilted>0</tilted></_>
    <_>
      <rects>
        <_>
          15 10 2 4 -1.</_>
        <_>
          16 10 1 4 2.</_></rects>
      <tilted>0</tilted></_>
    <_>
      <rects>
        <_>
          20 0 4 10 -1.</_>
        <_>
          20 5 4 5 2.</_></rects>
      <tilted>0</tilted></_>
    <_>
      <rects>
        <_>
          21 7 2 6 -1.</_>
        <_>
          21 7 1 3 2.</_>
        <_>
          22 10 1 3 2.</_></rects>
      <tilted>0</tilted></_>
    <_>
      <rects>
        <_>
          21 11 3 1 -1.</_>
        <_>
          22 11 1 1 3.</_></rects>
      <tilted>0</tilted></_>
    <_>
      <rects>
        <_>
          22 3 1 21 -1.</_>
        <_>
          22 10 1 7 3.</_></rects>
      <tilted>0</tilted></_>
    <_>
      <rects>
        <_>
          22 12 2 2 -1.</_>
        <_>
          23 12 1 2 2.</_></rects>
      <tilted>0</tilted></_></features></cascade>
</opencv_storage>
