<?xml version="1.0"?>
<opencv_storage>
<stage18>
  <maxWeakCount>5</maxWeakCount>
  <stageThreshold>-1.2182409763336182e+00</stageThreshold>
  <weakClassifiers>
    <_>
      <internalNodes>
        0 -1 161479 4.1453265585005283e-03</internalNodes>
      <leafValues>
        -7.2158592939376831e-01 7.0322579145431519e-01</leafValues></_>
    <_>
      <internalNodes>
        0 -1 6203 -4.0903729386627674e-03</internalNodes>
      <leafValues>
        4.2027890682220459e-01 -7.0306468009948730e-01</leafValues></_>
    <_>
      <internalNodes>
        0 -1 106318 6.0449102893471718e-03</internalNodes>
      <leafValues>
        -3.6877724528312683e-01 9.7189527750015259e-01</leafValues></_>
    <_>
      <internalNodes>
        0 -1 78710 1.2381146370898932e-04</internalNodes>
      <leafValues>
        3.8801550865173340e-01 -8.5926729440689087e-01</leafValues></_>
    <_>
      <internalNodes>
        0 -1 38316 -9.4712147256359458e-04</internalNodes>
      <leafValues>
        3.1111061573028564e-01 -9.0604543685913086e-01</leafValues></_></weakClassifiers></stage18>
</opencv_storage>
