<?xml version="1.0"?>
<opencv_storage>
<cascade>
  <stageType>BOOST</stageType>
  <featureType>HAAR</featureType>
  <height>24</height>
  <width>24</width>
  <stageParams>
    <boostType>GAB</boostType>
    <minHitRate>9.9500000476837158e-01</minHitRate>
    <maxFalseAlarm>5.0000000000000000e-01</maxFalseAlarm>
    <weightTrimRate>9.4999999999999996e-01</weightTrimRate>
    <maxDepth>1</maxDepth>
    <maxWeakCount>100</maxWeakCount></stageParams>
  <featureParams>
    <maxCatCount>0</maxCatCount>
    <featSize>1</featSize>
    <mode>BASIC</mode></featureParams>
  <stageNum>20</stageNum>
  <stages>
    <!-- stage 0 -->
    <_>
      <maxWeakCount>2</maxWeakCount>
      <stageThreshold>-3.3673304319381714e-01</stageThreshold>
      <weakClassifiers>
        <_>
          <internalNodes>
            0 -1 40 6.6114403307437897e-02</internalNodes>
          <leafValues>
            -9.8970133066177368e-01 7.8683388233184814e-01</leafValues></_>
        <_>
          <internalNodes>
            0 -1 10 -3.3453425765037537e-01</internalNodes>
          <leafValues>
            6.5296828746795654e-01 -9.7118628025054932e-01</leafValues></_></weakClassifiers></_>
    <!-- stage 1 -->
    <_>
      <maxWeakCount>2</maxWeakCount>
      <stageThreshold>-3.6750987172126770e-01</stageThreshold>
      <weakClassifiers>
        <_>
          <internalNodes>
            0 -1 5 -4.3920353055000305e-02</internalNodes>
          <leafValues>
            7.4035090208053589e-01 -9.1641789674758911e-01</leafValues></_>
        <_>
          <internalNodes>
            0 -1 16 -1.0341889411211014e-01</internalNodes>
          <leafValues>
            5.4890805482864380e-01 -9.1126763820648193e-01</leafValues></_></weakClassifiers></_>
    <!-- stage 2 -->
    <_>
      <maxWeakCount>2</maxWeakCount>
      <stageThreshold>-6.6528987884521484e-01</stageThreshold>
      <weakClassifiers>
        <_>
          <internalNodes>
            0 -1 26 7.9901829361915588e-02</internalNodes>
          <leafValues>
            -9.2871689796447754e-01 6.5584415197372437e-01</leafValues></_>
        <_>
          <internalNodes>
            0 -1 47 2.1468885242938995e-02</internalNodes>
          <leafValues>
            -9.8268187046051025e-01 2.6342704892158508e-01</leafValues></_></weakClassifiers></_>
    <!-- stage 3 -->
    <_>
      <maxWeakCount>3</maxWeakCount>
      <stageThreshold>-1.1731650829315186e+00</stageThreshold>
      <weakClassifiers>
        <_>
          <internalNodes>
            0 -1 9 6.9652371108531952e-02</internalNodes>
          <leafValues>
            -9.5709174871444702e-01 2.0620842278003693e-01</leafValues></_>
        <_>
          <internalNodes>
            0 -1 24 -5.1841795444488525e-01</internalNodes>
          <leafValues>
            8.1588721275329590e-01 -6.3340693712234497e-01</leafValues></_>
        <_>
          <internalNodes>
            0 -1 11 1.0270619532093406e-04</internalNodes>
          <leafValues>
            4.1733363270759583e-01 -9.5917272567749023e-01</leafValues></_></weakClassifiers></_>
    <!-- stage 4 -->
    <_>
      <maxWeakCount>4</maxWeakCount>
      <stageThreshold>-1.1814832687377930e+00</stageThreshold>
      <weakClassifiers>
        <_>
          <internalNodes>
            0 -1 8 1.6289599239826202e-01</internalNodes>
          <leafValues>
            -9.4865524768829346e-01 1.3983051478862762e-01</leafValues></_>
        <_>
          <internalNodes>
            0 -1 29 -1.2249465286731720e-01</internalNodes>
          <leafValues>
            2.0350146293640137e-01 -8.5702461004257202e-01</leafValues></_>
        <_>
          <internalNodes>
            0 -1 32 -3.0548527138307691e-04</internalNodes>
          <leafValues>
            -1. 2.3767895996570587e-01</leafValues></_>
        <_>
          <internalNodes>
            0 -1 31 1.6126786358654499e-03</internalNodes>
          <leafValues>
            3.8651767373085022e-01 -1.</leafValues></_></weakClassifiers></_>
    <!-- stage 5 -->
    <_>
      <maxWeakCount>2</maxWeakCount>
      <stageThreshold>-4.8032265901565552e-01</stageThreshold>
      <weakClassifiers>
        <_>
          <internalNodes>
            0 -1 54 5.3161042742431164e-03</internalNodes>
          <leafValues>
            -6.9217687845230103e-01 9.1228067874908447e-01</leafValues></_>
        <_>
          <internalNodes>
            0 -1 42 7.6465087477117777e-04</internalNodes>
          <leafValues>
            2.1185420453548431e-01 -1.</leafValues></_></weakClassifiers></_>
    <!-- stage 6 -->
    <_>
      <maxWeakCount>2</maxWeakCount>
      <stageThreshold>-8.4139895439147949e-01</stageThreshold>
      <weakClassifiers>
        <_>
          <internalNodes>
            0 -1 43 -3.1393504468724132e-04</internalNodes>
          <leafValues>
            -9.7735852003097534e-01 1.3535353541374207e-01</leafValues></_>
        <_>
          <internalNodes>
            0 -1 35 -1.0813931003212929e-03</internalNodes>
          <leafValues>
            -9.7458148002624512e-01 1.3595955073833466e-01</leafValues></_></weakClassifiers></_>
    <!-- stage 7 -->
    <_>
      <maxWeakCount>2</maxWeakCount>
      <stageThreshold>-8.8915991783142090e-01</stageThreshold>
      <weakClassifiers>
        <_>
          <internalNodes>
            0 -1 30 4.3644099496304989e-03</internalNodes>
          <leafValues>
            -9.8933333158493042e-01 5.9259258210659027e-02</leafValues></_>
        <_>
          <internalNodes>
            0 -1 1 -3.5139240324497223e-02</internalNodes>
          <leafValues>
            1.7324291169643402e-01 -9.4841921329498291e-01</leafValues></_></weakClassifiers></_>
    <!-- stage 8 -->
    <_>
      <maxWeakCount>4</maxWeakCount>
      <stageThreshold>-9.5662784576416016e-01</stageThreshold>
      <weakClassifiers>
        <_>
          <internalNodes>
            0 -1 7 1.1907010339200497e-02</internalNodes>
          <leafValues>
            -7.5525116920471191e-01 6.0000002384185791e-01</leafValues></_>
        <_>
          <internalNodes>
            0 -1 13 -3.5858624614775181e-03</internalNodes>
          <leafValues>
            2.8807625174522400e-01 -9.6388220787048340e-01</leafValues></_>
        <_>
          <internalNodes>
            0 -1 45 1.7997987568378448e-02</internalNodes>
          <leafValues>
            -9.3492883443832397e-01 3.4214413166046143e-01</leafValues></_>
        <_>
          <internalNodes>
            0 -1 25 5.5345747619867325e-02</internalNodes>
          <leafValues>
            -8.3159708976745605e-01 5.4713386297225952e-01</leafValues></_></weakClassifiers></_>
    <!-- stage 9 -->
    <_>
      <maxWeakCount>2</maxWeakCount>
      <stageThreshold>-3.9845654368400574e-01</stageThreshold>
      <weakClassifiers>
        <_>
          <internalNodes>
            0 -1 12 5.3253085352480412e-03</internalNodes>
          <leafValues>
            -7.2031664848327637e-01 7.1241831779479980e-01</leafValues></_>
        <_>
          <internalNodes>
            0 -1 41 1.4949138858355582e-04</internalNodes>
          <leafValues>
            3.2186007499694824e-01 -9.7833138704299927e-01</leafValues></_></weakClassifiers></_>
    <!-- stage 10 -->
    <_>
      <maxWeakCount>2</maxWeakCount>
      <stageThreshold>-4.0229025483131409e-01</stageThreshold>
      <weakClassifiers>
        <_>
          <internalNodes>
            0 -1 34 -3.5869013518095016e-03</internalNodes>
          <leafValues>
            1. -7.5592625141143799e-01</leafValues></_>
        <_>
          <internalNodes>
            0 -1 44 -2.5538216505083255e-05</internalNodes>
          <leafValues>
            -9.9031507968902588e-01 3.5363599658012390e-01</leafValues></_></weakClassifiers></_>
    <!-- stage 11 -->
    <_>
      <maxWeakCount>2</maxWeakCount>
      <stageThreshold>-4.0855586528778076e-01</stageThreshold>
      <weakClassifiers>
        <_>
          <internalNodes>
            0 -1 51 -6.4727887511253357e-03</internalNodes>
          <leafValues>
            8.5483872890472412e-01 -6.9982844591140747e-01</leafValues></_>
        <_>
          <internalNodes>
            0 -1 14 -1.8389478791505098e-03</internalNodes>
          <leafValues>
            2.9127261042594910e-01 -9.8640698194503784e-01</leafValues></_></weakClassifiers></_>
    <!-- stage 12 -->
    <_>
      <maxWeakCount>2</maxWeakCount>
      <stageThreshold>-4.6224242448806763e-01</stageThreshold>
      <weakClassifiers>
        <_>
          <internalNodes>
            0 -1 4 -3.5362185444682837e-03</internalNodes>
          <leafValues>
            6.7839193344116211e-01 -7.7451878786087036e-01</leafValues></_>
        <_>
          <internalNodes>
            0 -1 55 2.9150840418878943e-05</internalNodes>
          <leafValues>
            3.1227636337280273e-01 -9.9069780111312866e-01</leafValues></_></weakClassifiers></_>
    <!-- stage 13 -->
    <_>
      <maxWeakCount>2</maxWeakCount>
      <stageThreshold>-3.7423500418663025e-01</stageThreshold>
      <weakClassifiers>
        <_>
          <internalNodes>
            0 -1 6 -1.9540009088814259e-03</internalNodes>
          <leafValues>
            7.5324672460556030e-01 -7.2711265087127686e-01</leafValues></_>
        <_>
          <internalNodes>
            0 -1 52 -2.7160713216289878e-05</internalNodes>
          <leafValues>
            -9.8203140497207642e-01 3.5287767648696899e-01</leafValues></_></weakClassifiers></_>
    <!-- stage 14 -->
    <_>
      <maxWeakCount>4</maxWeakCount>
      <stageThreshold>-1.2216112613677979e+00</stageThreshold>
      <weakClassifiers>
        <_>
          <internalNodes>
            0 -1 28 -1.1392338637961075e-04</internalNodes>
          <leafValues>
            -9.2484849691390991e-01 1.1397849768400192e-01</leafValues></_>
        <_>
          <internalNodes>
            0 -1 46 -3.6758384667336941e-03</internalNodes>
          <leafValues>
            3.6558768153190613e-01 -7.7987277507781982e-01</leafValues></_>
        <_>
          <internalNodes>
            0 -1 21 -5.1557249389588833e-04</internalNodes>
          <leafValues>
            -8.2587677240371704e-01 3.9528113603591919e-01</leafValues></_>
        <_>
          <internalNodes>
            0 -1 36 -8.1936086644418538e-05</internalNodes>
          <leafValues>
            -1. 2.7015984058380127e-01</leafValues></_></weakClassifiers></_>
    <!-- stage 15 -->
    <_>
      <maxWeakCount>2</maxWeakCount>
      <stageThreshold>-8.1202101707458496e-01</stageThreshold>
      <weakClassifiers>
        <_>
          <internalNodes>
            0 -1 20 2.3412652808474377e-05</internalNodes>
          <leafValues>
            4.6904314309358597e-02 -9.7093790769577026e-01</leafValues></_>
        <_>
          <internalNodes>
            0 -1 19 -1.0520380735397339e-01</internalNodes>
          <leafValues>
            2.0936149358749390e-01 -8.5892534255981445e-01</leafValues></_></weakClassifiers></_>
    <!-- stage 16 -->
    <_>
      <maxWeakCount>4</maxWeakCount>
      <stageThreshold>-1.0501832962036133e+00</stageThreshold>
      <weakClassifiers>
        <_>
          <internalNodes>
            0 -1 18 4.3602194637060165e-03</internalNodes>
          <leafValues>
            -7.6340109109878540e-01 5.5769228935241699e-01</leafValues></_>
        <_>
          <internalNodes>
            0 -1 49 -8.8393517216900364e-06</internalNodes>
          <leafValues>
            -9.2426842451095581e-01 3.0910915136337280e-01</leafValues></_>
        <_>
          <internalNodes>
            0 -1 0 7.1247834712266922e-03</internalNodes>
          <leafValues>
            2.3845353722572327e-01 -9.6950054168701172e-01</leafValues></_>
        <_>
          <internalNodes>
            0 -1 17 -1.7182056326419115e-03</internalNodes>
          <leafValues>
            3.9903274178504944e-01 -7.9054236412048340e-01</leafValues></_></weakClassifiers></_>
    <!-- stage 17 -->
    <_>
      <maxWeakCount>4</maxWeakCount>
      <stageThreshold>-1.0245910882949829e+00</stageThreshold>
      <weakClassifiers>
        <_>
          <internalNodes>
            0 -1 48 5.3162155672907829e-03</internalNodes>
          <leafValues>
            -7.0103091001510620e-01 8.4126985073089600e-01</leafValues></_>
        <_>
          <internalNodes>
            0 -1 3 -1.4737695455551147e-01</internalNodes>
          <leafValues>
            3.1492057442665100e-01 -8.8322579860687256e-01</leafValues></_>
        <_>
          <internalNodes>
            0 -1 37 6.9640891160815954e-04</internalNodes>
          <leafValues>
            3.8099074363708496e-01 -9.1547018289566040e-01</leafValues></_>
        <_>
          <internalNodes>
            0 -1 38 9.6221949206665158e-05</internalNodes>
          <leafValues>
            2.7698945999145508e-01 -9.5261228084564209e-01</leafValues></_></weakClassifiers></_>
    <!-- stage 18 -->
    <_>
      <maxWeakCount>5</maxWeakCount>
      <stageThreshold>-1.2182409763336182e+00</stageThreshold>
      <weakClassifiers>
        <_>
          <internalNodes>
            0 -1 53 4.1453265585005283e-03</internalNodes>
          <leafValues>
            -7.2158592939376831e-01 7.0322579145431519e-01</leafValues></_>
        <_>
          <internalNodes>
            0 -1 2 -4.0903729386627674e-03</internalNodes>
          <leafValues>
            4.2027890682220459e-01 -7.0306468009948730e-01</leafValues></_>
        <_>
          <internalNodes>
            0 -1 33 6.0449102893471718e-03</internalNodes>
          <leafValues>
            -3.6877724528312683e-01 9.7189527750015259e-01</leafValues></_>
        <_>
          <internalNodes>
            0 -1 22 1.2381146370898932e-04</internalNodes>
          <leafValues>
            3.8801550865173340e-01 -8.5926729440689087e-01</leafValues></_>
        <_>
          <internalNodes>
            0 -1 15 -9.4712147256359458e-04</internalNodes>
          <leafValues>
            3.1111061573028564e-01 -9.0604543685913086e-01</leafValues></_></weakClassifiers></_>
    <!-- stage 19 -->
    <_>
      <maxWeakCount>4</maxWeakCount>
      <stageThreshold>-9.9498575925827026e-01</stageThreshold>
      <weakClassifiers>
        <_>
          <internalNodes>
            0 -1 50 -5.2003590390086174e-03</internalNodes>
          <leafValues>
            8.5526317358016968e-01 -7.3813706636428833e-01</leafValues></_>
        <_>
          <internalNodes>
            0 -1 27 -3.6048419773578644e-02</internalNodes>
          <leafValues>
            5.1478159427642822e-01 -8.5611629486083984e-01</leafValues></_>
        <_>
          <internalNodes>
            0 -1 39 -4.5472593046724796e-03</internalNodes>
          <leafValues>
            2.7532771229743958e-01 -9.5467317104339600e-01</leafValues></_>
        <_>
          <internalNodes>
            0 -1 23 -3.7729635834693909e-02</internalNodes>
          <leafValues>
            3.2393994927406311e-01 -9.3564003705978394e-01</leafValues></_></weakClassifiers></_></stages>
  <features>
    <_>
      <rects>
        <_>
          0 2 4 21 -1.</_>
        <_>
          0 9 4 7 3.</_></rects>
      <tilted>0</tilted></_>
    <_>
      <rects>
        <_>
          0 4 19 12 -1.</_>
        <_>
          0 8 19 4 3.</_></rects>
      <tilted>0</tilted></_>
    <_>
      <rects>
        <_>
          0 6 7 6 -1.</_>
        <_>
          0 9 7 3 2.</_></rects>
      <tilted>0</tilted></_>
    <_>
      <rects>
        <_>
          0 6 19 18 -1.</_>
        <_>
          0 12 19 6 3.</_></rects>
      <tilted>0</tilted></_>
    <_>
      <rects>
        <_>
          0 8 2 9 -1.</_>
        <_>
          1 8 1 9 2.</_></rects>
      <tilted>0</tilted></_>
    <_>
      <rects>
        <_>
          0 8 10 6 -1.</_>
        <_>
          5 8 5 6 2.</_></rects>
      <tilted>0</tilted></_>
    <_>
      <rects>
        <_>
          1 9 3 2 -1.</_>
        <_>
          2 9 1 2 3.</_></rects>
      <tilted>0</tilted></_>
    <_>
      <rects>
        <_>
          1 10 6 3 -1.</_>
        <_>
          3 10 2 3 3.</_></rects>
      <tilted>0</tilted></_>
    <_>
      <rects>
        <_>
          1 12 23 12 -1.</_>
        <_>
          1 18 23 6 2.</_></rects>
      <tilted>0</tilted></_>
    <_>
      <rects>
        <_>
          1 14 23 8 -1.</_>
        <_>
          1 18 23 4 2.</_></rects>
      <tilted>0</tilted></_>
    <_>
      <rects>
        <_>
          2 0 16 24 -1.</_>
        <_>
          2 8 16 8 3.</_></rects>
      <tilted>0</tilted></_>
    <_>
      <rects>
        <_>
          2 1 2 2 -1.</_>
        <_>
          3 1 1 2 2.</_></rects>
      <tilted>0</tilted></_>
    <_>
      <rects>
        <_>
          2 11 3 3 -1.</_>
        <_>
          3 11 1 3 3.</_></rects>
      <tilted>0</tilted></_>
    <_>
      <rects>
        <_>
          2 12 12 12 -1.</_>
        <_>
          6 12 4 12 3.</_></rects>
      <tilted>0</tilted></_>
    <_>
      <rects>
        <_>
          2 13 15 1 -1.</_>
        <_>
          7 13 5 1 3.</_></rects>
      <tilted>0</tilted></_>
    <_>
      <rects>
        <_>
          3 0 5 8 -1.</_>
        <_>
          3 4 5 4 2.</_></rects>
      <tilted>0</tilted></_>
    <_>
      <rects>
        <_>
          3 0 15 10 -1.</_>
        <_>
          3 5 15 5 2.</_></rects>
      <tilted>0</tilted></_>
    <_>
      <rects>
        <_>
          3 10 16 5 -1.</_>
        <_>
          11 10 8 5 2.</_></rects>
      <tilted>0</tilted></_>
    <_>
      <rects>
        <_>
          3 16 1 8 -1.</_>
        <_>
          3 20 1 4 2.</_></rects>
      <tilted>0</tilted></_>
    <_>
      <rects>
        <_>
          4 0 12 18 -1.</_>
        <_>
          4 6 12 6 3.</_></rects>
      <tilted>0</tilted></_>
    <_>
      <rects>
        <_>
          6 0 17 2 -1.</_>
        <_>
          6 1 17 1 2.</_></rects>
      <tilted>0</tilted></_>
    <_>
      <rects>
        <_>
          6 11 9 3 -1.</_>
        <_>
          6 12 9 1 3.</_></rects>
      <tilted>0</tilted></_>
    <_>
      <rects>
        <_>
          6 13 6 2 -1.</_>
        <_>
          6 13 3 1 2.</_>
        <_>
          9 14 3 1 2.</_></rects>
      <tilted>0</tilted></_>
    <_>
      <rects>
        <_>
          7 0 15 19 -1.</_>
        <_>
          12 0 5 19 3.</_></rects>
      <tilted>0</tilted></_>
    <_>
      <rects>
        <_>
          7 0 16 24 -1.</_>
        <_>
          7 8 16 8 3.</_></rects>
      <tilted>0</tilted></_>
    <_>
      <rects>
        <_>
          7 6 11 16 -1.</_>
        <_>
          7 14 11 8 2.</_></rects>
      <tilted>0</tilted></_>
    <_>
      <rects>
        <_>
          7 14 10 10 -1.</_>
        <_>
          7 19 10 5 2.</_></rects>
      <tilted>0</tilted></_>
    <_>
      <rects>
        <_>
          8 9 15 6 -1.</_>
        <_>
          13 9 5 6 3.</_></rects>
      <tilted>0</tilted></_>
    <_>
      <rects>
        <_>
          8 11 8 3 -1.</_>
        <_>
          8 12 8 1 3.</_></rects>
      <tilted>0</tilted></_>
    <_>
      <rects>
        <_>
          9 0 14 12 -1.</_>
        <_>
          9 6 14 6 2.</_></rects>
      <tilted>0</tilted></_>
    <_>
      <rects>
        <_>
          9 9 14 1 -1.</_>
        <_>
          16 9 7 1 2.</_></rects>
      <tilted>0</tilted></_>
    <_>
      <rects>
        <_>
          9 10 6 2 -1.</_>
        <_>
          12 10 3 2 2.</_></rects>
      <tilted>0</tilted></_>
    <_>
      <rects>
        <_>
          9 10 6 3 -1.</_>
        <_>
          12 10 3 3 2.</_></rects>
      <tilted>0</tilted></_>
    <_>
      <rects>
        <_>
          9 18 3 3 -1.</_>
        <_>
          9 19 3 1 3.</_></rects>
      <tilted>0</tilted></_>
    <_>
      <rects>
        <_>
          10 18 10 2 -1.</_>
        <_>
          10 18 5 1 2.</_>
        <_>
          15 19 5 1 2.</_></rects>
      <tilted>0</tilted></_>
    <_>
      <rects>
        <_>
          11 9 3 4 -1.</_>
        <_>
          11 11 3 2 2.</_></rects>
      <tilted>0</tilted></_>
    <_>
      <rects>
        <_>
          11 10 2 4 -1.</_>
        <_>
          12 10 1 4 2.</_></rects>
      <tilted>0</tilted></_>
    <_>
      <rects>
        <_>
          11 11 5 4 -1.</_>
        <_>
          11 13 5 2 2.</_></rects>
      <tilted>0</tilted></_>
    <_>
      <rects>
        <_>
          11 13 3 2 -1.</_>
        <_>
          12 13 1 2 3.</_></rects>
      <tilted>0</tilted></_>
    <_>
      <rects>
        <_>
          12 7 1 15 -1.</_>
        <_>
          12 12 1 5 3.</_></rects>
      <tilted>0</tilted></_>
    <_>
      <rects>
        <_>
          12 9 12 8 -1.</_>
        <_>
          18 9 6 8 2.</_></rects>
      <tilted>0</tilted></_>
    <_>
      <rects>
        <_>
          12 11 3 3 -1.</_>
        <_>
          12 12 3 1 3.</_></rects>
      <tilted>0</tilted></_>
    <_>
      <rects>
        <_>
          13 9 2 6 -1.</_>
        <_>
          13 12 2 3 2.</_></rects>
      <tilted>0</tilted></_>
    <_>
      <rects>
        <_>
          13 10 2 4 -1.</_>
        <_>
          13 12 2 2 2.</_></rects>
      <tilted>0</tilted></_>
    <_>
      <rects>
        <_>
          13 11 2 1 -1.</_>
        <_>
          14 11 1 1 2.</_></rects>
      <tilted>0</tilted></_>
    <_>
      <rects>
        <_>
          14 2 10 9 -1.</_>
        <_>
          19 2 5 9 2.</_></rects>
      <tilted>0</tilted></_>
    <_>
      <rects>
        <_>
          14 4 1 12 -1.</_>
        <_>
          14 8 1 4 3.</_></rects>
      <tilted>0</tilted></_>
    <_>
      <rects>
        <_>
          14 11 10 4 -1.</_>
        <_>
          19 11 5 4 2.</_></rects>
      <tilted>0</tilted></_>
    <_>
      <rects>
        <_>
          14 16 4 2 -1.</_>
        <_>
          14 17 4 1 2.</_></rects>
      <tilted>0</tilted></_>
    <_>
      <rects>
        <_>
          16 19 8 5 -1.</_>
        <_>
          20 19 4 5 2.</_></rects>
      <tilted>0</tilted></_>
    <_>
      <rects>
        <_>
          21 6 2 8 -1.</_>
        <_>
          21 6 1 4 2.</_>
        <_>
          22 10 1 4 2.</_></rects>
      <tilted>0</tilted></_>
    <_>
      <rects>
        <_>
          21 7 2 6 -1.</_>
        <_>
          21 7 1 3 2.</_>
        <_>
          22 10 1 3 2.</_></rects>
      <tilted>0</tilted></_>
    <_>
      <rects>
        <_>
          21 21 3 3 -1.</_>
        <_>
          21 22 3 1 3.</_></rects>
      <tilted>0</tilted></_>
    <_>
      <rects>
        <_>
          22 4 2 8 -1.</_>
        <_>
          22 4 1 4 2.</_>
        <_>
          23 8 1 4 2.</_></rects>
      <tilted>0</tilted></_>
    <_>
      <rects>
        <_>
          22 11 2 2 -1.</_>
        <_>
          23 11 1 2 2.</_></rects>
      <tilted>0</tilted></_>
    <_>
      <rects>
        <_>
          22 21 2 3 -1.</_>
        <_>
          22 22 2 1 3.</_></rects>
      <tilted>0</tilted></_></features></cascade>
</opencv_storage>
